digraph Tree {
node [shape=box] ;
0 [label="Patrons_int <= 0.5\ngini = 0.5\nsamples = 12\nvalue = [6, 6]"] ;
1 [label="gini = 0.0\nsamples = 4\nvalue = [4, 0]"] ;
0 -> 1 [labeldistance=2.5, labelangle=45, headlabel="True"] ;
2 [label="Hungry_int <= 0.5\ngini = 0.375\nsamples = 8\nvalue = [2, 6]"] ;
0 -> 2 [labeldistance=2.5, labelangle=-45, headlabel="False"] ;
3 [label="Price_int <= 0.5\ngini = 0.5\nsamples = 4\nvalue = [2, 2]"] ;
2 -> 3 ;
4 [label="gini = 0.0\nsamples = 1\nvalue = [0, 1]"] ;
3 -> 4 ;
5 [label="Fri/Sat_int <= 0.5\ngini = 0.444\nsamples = 3\nvalue = [2, 1]"] ;
3 -> 5 ;
6 [label="gini = 0.0\nsamples = 1\nvalue = [0, 1]"] ;
5 -> 6 ;
7 [label="gini = 0.0\nsamples = 2\nvalue = [2, 0]"] ;
5 -> 7 ;
8 [label="gini = 0.0\nsamples = 4\nvalue = [0, 4]"] ;
2 -> 8 ;
}